{
  "dense_6_weights": [
    [
      "-84962844848632816",
      "-33001217991113664",
      "-27341503649950028",
      "-85666082799434656",
      "39253246039152144",
      "30420603230595588",
      "17354775220155716",
      "91574341058731072",
      "-26432478800415992",
      "76516844332218176",
      "-45366637408733368",
      "-64651958644390104",
      "-53318593651056288",
      "28332069516181944",
      "-5423568654805422",
      "-92939563095569616",
      "57936120778322216",
      "41883010417222976",
      "52913077175617216",
      "-60377214103937152",
      "58932915329933168",
      "12180550955235958",
      "-85901714861392976",
      "49777187407016752",
      "31345378607511520",
      "-8461427874863148",
      "-29022943228483200",
      "-13637362048029900",
      "41711084544658664",
      "-42998675256967544",
      "-78778088092803952",
      "-80919213593006128",
      "40521997958421704",
      "-85545681416988368",
      "-60151804238557816",
      "80135464668273920",
      "54963190108537672",
      "-18704034388065340",
      "-4519343841820955",
      "13611562550067902",
      "61982180923223496",
      "817822176031768",
      "-23216413334012032",
      "-39636157453060152",
      "-4021335393190384",
      "-15554159879684448",
      "-22932890802621840",
      "78852877020835872",
      "42346570640802384",
      "42382579296827320",
      "23925798013806344",
      "-33328630030155180",
      "19660599529743196",
      "-56960064917802808",
      "44679973274469376",
      "51696918904781344",
      "-94132296741008752",
      "-14578873291611672",
      "-78356839716434480",
      "87167344987392432",
      "3066115779802203",
      "-42807549238204960",
      "71366600692272184",
      "65076634287834168"
    ],
    [
      "-92302739620208736",
      "-15968790277838706",
      "-18496964126825332",
      "69983340799808504",
      "86617454886436464",
      "35661235451698304",
      "-10308297351002694",
      "-21358437836170196",
      "77321618795394896",
      "-57610854506492616",
      "-34691896289587020",
      "22592330351471900",
      "-87102353572845456",
      "-6947909481823444",
      "39934277534484864",
      "32827258110046388",
      "-31566347926855088",
      "-38604546338319776",
      "43166480958461760",
      "42129844427108768",
      "-30742442235350608",
      "6250652950257063",
      "41377369314432144",
      "-23861339315772056",
      "-89559584856033328",
      "3084643743932247",
      "-92186540365219120",
      "-80752611160278320",
      "9720347821712494",
      "22971382364630700",
      "-22355256602168084",
      "-14892876148223876",
      "18010664731264114",
      "25414863601326944",
      "68508900701999664",
      "-52416421473026272",
      "-6053152494132519",
      "-58300059288740160",
      "2653380855917930",
      "58208599686622616",
      "27085354551672936",
      "-17759701237082482",
      "-83770573139190672",
      "17605466768145562",
      "-73360979557037360",
      "14200168661773204",
      "-47828443348407744",
      "62780499458312992",
      "-64614936709403992",
      "-52760325372219088",
      "69061771035194400",
      "-79367727041244512",
      "-48258233815431592",
      "80085664987564080",
      "-47319322824478152",
      "-86147271096706384",
      "13963290490210056",
      "-41025120764970776",
      "28555903583765028",
      "29913352802395820",
      "61630956828594208",
      "909457798115909",
      "55406924337148664",
      "-12998464517295360"
    ],
    [
      "-74197471141815184",
      "-70212855935096744",
      "3958696499466896",
      "76313003897666928",
      "-39314750581979752",
      "72444230318069456",
      "24609558284282684",
      "34756716340780260",
      "51752347499132160",
      "56664422154426576",
      "52353970706462864",
      "42281150817871096",
      "84066964685916896",
      "17371838912367820",
      "-20442422479391100",
      "48492703586816784",
      "-15474932268261910",
      "36052502691745760",
      "34391235560178756",
      "-2184512559324503",
      "37069138139486312",
      "102355025708675392",
      "-60063354671001432",
      "53637407720088960",
      "-28214171528816224",
      "-50174191594123840",
      "77453427016735072",
      "-87656617164611824",
      "76185517013072960",
      "46768169850111008",
      "-57139068841934208",
      "-51172100007534024",
      "53410220891237256",
      "-876103469636291",
      "9694765321910382",
      "-26667885482311248",
      "-51760360598564144",
      "21350003778934480",
      "28985923156142236",
      "78487202525138848",
      "75345151126384736",
      "91196767985820768",
      "22221073508262636",
      "-88614217936992640",
      "23455794900655748",
      "73519445955753328",
      "-21193493157625200",
      "-58360770344734192",
      "75167104601860048",
      "-6850366480648518",
      "-79862937331199648",
      "-72412922978401184",
      "68744875490665432",
      "-2822845941409468",
      "-62465708702802656",
      "-6060819141566753",
      "49321703612804416",
      "55763639509677888",
      "82987353205680848",
      "-41191659867763520",
      "-24544106796383856",
      "-61991553753614424",
      "-101538531482219696",
      "40230706334114072"
    ],
    [
      "-57220306247472760",
      "59010885655879976",
      "-49934398382902144",
      "-44138282537460328",
      "80920495092868800",
      "14152233488857746",
      "-88728331029415136",
      "50379049032926560",
      "87730504572391504",
      "90937465429306032",
      "-46773474663496016",
      "-78336633741855616",
      "-55497705936431888",
      "77392131090164192",
      "52785176783800128",
      "-101392410695552832",
      "-30944334343075752",
      "-81767238676548000",
      "67282937467098240",
      "33980607986450196",
      "46091679483652112",
      "-62012013047933576",
      "53885672241449360",
      "-43964255601167680",
      "48027288168668744",
      "62524065375328064",
      "85337668657302864",
      "-68510338664054872",
      "-43513465672731400",
      "-41040323674678800",
      "-24373237043619156",
      "-75857304036617280",
      "77861756086349488",
      "-32766673713922500",
      "87777085602283472",
      "51545403897762296",
      "-18278907984495164",
      "27920121327042580",
      "3618465038016438",
      "-33728968352079392",
      "-3928534220904112",
      "-84829330444335936",
      "-29991365969181060",
      "-19477441906929016",
      "70328280329704288",
      "-49296777695417408",
      "54120380431413648",
      "-66868834197521208",
      "-38368057459592816",
      "41610609740018848",
      "-72172641754150384",
      "94382531940937040",
      "88291928172111504",
      "-71462132036685944",
      "-94866223633289344",
      "-20772635936737060",
      "40247425436973568",
      "82706391811370848",
      "-32802194356918336",
      "34152220934629440",
      "36809585988521576",
      "-53016386926174160",
      "45091260224580768",
      "-71562014520168304"
    ],
    [
      "55401593446731568",
      "-69365158677101136",
      "-91068424284458160",
      "11252653785049916",
      "54295510053634640",
      "-51013890653848648",
      "9120970964431762",
      "-69042183458805088",
      "19878797233104704",
      "-59953339397907256",
      "-23732574656605720",
      "-35108804702758788",
      "44054757803678512",
      "67500315606594088",
      "4201020579785108",
      "34220606088638304",
      "80106243491172784",
      "94202354550361632",
      "-55670194327831272",
      "-43564386665821072",
      "40631480515003208",
      "25708295404911040",
      "-29889430850744248",
      "-105333201587200160",
      "-23576755076646804",
      "46517860144376752",
      "-99616587162017824",
      "-101915217936038976",
      "-62252514064311984",
      "-21181840449571608",
      "-59524275362491608",
      "48734348267316816",
      "-26666522026062012",
      "53943380713462832",
      "87617404758930208",
      "43300803750753400",
      "-79154409468173984",
      "52794717252254488",
      "67208595573902128",
      "7315344177186489",
      "-52733987569808960",
      "-21145934239029884",
      "88530600070953376",
      "-96087470650672912",
      "53907666355371472",
      "74992746114730832",
      "315354613121598",
      "-34075323492288588",
      "85199870169162752",
      "54286275058984760",
      "4805210977792740",
      "57782452553510664",
      "-82269236445426944",
      "24012090638279916",
      "16312878578901290",
      "-86589679121971136",
      "-83741962909698480",
      "-106031231582164768",
      "98312415182590480",
      "92653781175613408",
      "-47264326363801960",
      "-40020883083343504",
      "-19516365602612496",
      "10958482511341572"
    ],
    [
      "-59760276228189472",
      "-31523857265710832",
      "97411848604679104",
      "81626817584037776",
      "88372722268104560",
      "-4783449694514275",
      "52784178406000136",
      "-22843070328235628",
      "-92357948422431952",
      "-34083560109138488",
      "20694352686405180",
      "35731412470340728",
      "-42725026607513424",
      "18990857526659964",
      "22240383550524712",
      "32839410006999968",
      "-1080686226487159",
      "-87926387786865232",
      "-13042100705206394",
      "-86215816438198096",
      "-11574992910027504",
      "-19526766613125800",
      "-89516595005989072",
      "-62105201184749600",
      "-87403371930122368",
      "-9570401161909104",
      "-53097002208232880",
      "-12247498147189618",
      "4884593188762665",
      "49145814031362536",
      "29243784025311472",
      "-73074065148830416",
      "-40834620594978336",
      "-17349705100059510",
      "-92544473707675936",
      "-64978882670402528",
      "-30602021142840384",
      "-23385901004076004",
      "34386958926916124",
      "48367667943239216",
      "-39856448769569400",
      "-23750258609652520",
      "-60860980302095416",
      "33274460583925248",
      "-39223015308380128",
      "-86257494986057280",
      "46234391629695896",
      "38154836744070056",
      "-100314542651176448",
      "-66683419048786160",
      "45423682779073712",
      "-48505265265703200",
      "-52968129515647888",
      "-4671051632612944",
      "36545880138874056",
      "-66368862986564640",
      "-35874281078577040",
      "97681552171707152",
      "9312042035162448",
      "13421032577753068",
      "-96147969365119936",
      "19683562219142912",
      "41836664080619816",
      "75319305062294000"
    ],
    [
      "-7679698057472706",
      "88128462433815008",
      "-82286216318607328",
      "29100526124238968",
      "-36703500896692280",
      "76614938676357264",
      "16837699338793754",
      "-95026314258575440",
      "55098086595535280",
      "4624637309461832",
      "17416680231690406",
      "-62342848628759384",
      "33566944301128388",
      "-14032667502760888",
      "50773408263921736",
      "-72064131498336784",
      "23524267598986624",
      "6147662643343210",
      "25632183998823164",
      "48159673810005184",
      "80524407327175136",
      "19335828721523284",
      "-11585410684347152",
      "68457514047622680",
      "27107564732432364",
      "-50209142267704008",
      "20556099712848664",
      "37068981677293776",
      "-78938379883766176",
      "-28840566053986548",
      "82344025373458864",
      "-7881781086325645",
      "-7512075360864401",
      "41736129671335224",
      "101052545011043552",
      "85975117981433872",
      "-43477252125740048",
      "-36882765591144560",
      "-25486251339316368",
      "-20247461274266244",
      "-78388206660747536",
      "76734200119972224",
      "-30012460425496100",
      "61558324843645096",
      "54538756608963016",
      "-8303682319819927",
      "-86050502955913536",
      "6990513298660517",
      "29332881793379784",
      "-7293764967471361",
      "-18263908103108408",
      "18903361633419992",
      "48633892089128496",
      "-72241820394992832",
      "9488042443990708",
      "14949702657759190",
      "14156850054860116",
      "88514164090156560",
      "66911630332469944",
      "89098237454891200",
      "-53428512066602704",
      "-2418162068352103",
      "18424887210130692",
      "22421432659029960"
    ],
    [
      "-18311921507120132",
      "26816878467798232",
      "76408147811889648",
      "-6046769674867392",
      "59779319912195208",
      "-84405504167079920",
      "79240716993808752",
      "-11397442780435086",
      "99820077419281008",
      "-77898561954498288",
      "-839691667351871",
      "31135821714997292",
      "-27111109346151352",
      "79142965376377104",
      "68028941750526432",
      "44883403927087784",
      "-45326840132474896",
      "61519484966993328",
      "79190716147422784",
      "71266412734985352",
      "-50662070512771608",
      "-40532372891902920",
      "-37727147340774536",
      "-11178729124367238",
      "51651146262884144",
      "-90658821165561680",
      "-5154442042112350",
      "28704212978482248",
      "73009021580219264",
      "107098788022994992",
      "-32646942883729936",
      "-39304710924625400",
      "-57114459574222568",
      "40226001292467120",
      "-5794350523501635",
      "-85810333490371712",
      "36979679018259048",
      "27951758354902268",
      "41926234960556032",
      "-32490283250808716",
      "80701030790805824",
      "-75541056692600256",
      "-58835402131080624",
      "7153700571507215",
      "38456600159406664",
      "-102862402796745296",
      "-87709456682205200",
      "-393013819120824",
      "75360797345638272",
      "-5113668274134398",
      "81205427646636960",
      "-18082533031702040",
      "-41261121630668640",
      "82904092967510224",
      "64176842570304872",
      "38219805806875232",
      "55669438093900680",
      "40008880198001864",
      "21822014823555948",
      "43208811432123184",
      "-87450370192527776",
      "36484558135271072",
      "-39543200284242632",
      "-51784992218017576"
    ],
    [
      "60950428247451784",
      "-95212213695049280",
      "76800577342510224",
      "-54116122424602512",
      "-15899756923317910",
      "-99092856049537664",
      "-38204044103622440",
      "-11244406923651696",
      "-53960166871547696",
      "-97723543643951424",
      "53284309804439544",
      "-32752566039562224",
      "13628669083118438",
      "-71716800332069400",
      "65770864486694336",
      "43916240334510800",
      "28140485286712648",
      "-66756591200828552",
      "-81403627991676336",
      "15381058678030968",
      "29323631897568704",
      "-31355381011962892",
      "53802654147148136",
      "-45770101249217984",
      "-37737842649221424",
      "-30727403238415720",
      "-46519260853528976",
      "70195585489273072",
      "-77478162944316864",
      "90829052031040192",
      "23905802518129348",
      "41613884270191192",
      "-64858540892601016",
      "-53006429225206376",
      "19047357141971588",
      "-82457005977630608",
      "70854604244232176",
      "-5792502313852310",
      "-20614426583051680",
      "56596092879772184",
      "-23916151374578476",
      "-95587313175201424",
      "-58528389781713488",
      "-40106140077114104",
      "41912924498319624",
      "-92675678431987760",
      "53189083933830264",
      "-42513307183980944",
      "-46175122261047360",
      "-51384516060352328",
      "17806161195039750",
      "66085286438465120",
      "-43945819139480592",
      "61080314218997952",
      "55749759078025816",
      "19958138465881348",
      "-50159156322479248",
      "62364611774683000",
      "-5722734611481428",
      "4179137758910656",
      "-58868572115898136",
      "84653504192829136",
      "-16002062708139420",
      "-8605471812188625"
    ],
    [
      "-19744088873267172",
      "-15110332518815994",
      "57239886373281480",
      "43321240693330768",
      "-67754805088043216",
      "-41635774075984952",
      "73692463338375088",
      "8542975410819054",
      "-46158544719219208",
      "49249891191720960",
      "37746671587228776",
      "-24171080440282820",
      "-99027246236801152",
      "46002048999071120",
      "-35399656742811204",
      "15625191852450370",
      "9214585646986962",
      "43468080461025240",
      "-73734939098358160",
      "-44920109212398528",
      "-96404716372489936",
      "-33880528062582016",
      "67107662558555600",
      "90128585696220400",
      "32351702451705932",
      "-39114948362112048",
      "35935591906309128",
      "-10282559320330620",
      "-66954776644706728",
      "-51991138607263568",
      "2034635283052921",
      "95028840005397792",
      "3177047474309802",
      "-34921910613775252",
      "94207204878330224",
      "-12388826347887516",
      "-35352155566215516",
      "-8813302963972092",
      "75506746768951424",
      "26963273063302040",
      "-26069866493344308",
      "-8286000229418278",
      "46240944415330888",
      "51349356770515440",
      "27021188288927080",
      "-91861613094806672",
      "68834230303764344",
      "-64231254160404208",
      "59643607586622240",
      "34491773694753648",
      "5973916035145521",
      "-66005483269691464",
      "4338589496910572",
      "45034330338239672",
      "1493628020398318",
      "100604705512523648",
      "-1946856966242194",
      "-12758778408169746",
      "15667229890823364",
      "38792934268713000",
      "15522674657404422",
      "29489466920495032",
      "-84713011980056768",
      "-2151242690160870"
    ],
    [
      "-39791923016309736",
      "58607507497072216",
      "-99772617220878608",
      "-89332535862922672",
      "-77476747334003456",
      "66654853522777560",
      "103317014873027808",
      "6169554777443409",
      "-55190354585647584",
      "-64029559493064880",
      "-107720591127872464",
      "62264472246170040",
      "-52128374576568600",
      "-3101425943896174",
      "-97556136548519136",
      "57910691946744920",
      "-27073500677943228",
      "87141685187816624",
      "-21620739251375200",
      "84225162863731392",
      "-51032461225986480",
      "-68479396402835848",
      "62065176665782928",
      "-7967841811478138",
      "85512377321720128",
      "74620530009269712",
      "-96939206123352048",
      "-36878675222396848",
      "-6478473544120789",
      "-74038028717041008",
      "46216957271099088",
      "-8700755424797535",
      "-97822532057762144",
      "-8076347410678864",
      "-33658687025308608",
      "-104158706963062288",
      "-81884764134883888",
      "77085569500923152",
      "77620342373847968",
      "64860820770263672",
      "78656159341335296",
      "-11469439603388310",
      "68822734057903288",
      "-30358398333191872",
      "101182892918586736",
      "-109633550047874448",
      "-58476310223340992",
      "110720232129096992",
      "78445978462696080",
      "3686963347718119",
      "5549402441829443",
      "63701443374156952",
      "108396902680397040",
      "-29246840626001360",
      "-20556433126330376",
      "-29813006520271300",
      "-67633010447025296",
      "31925193965435028",
      "72410941123962400",
      "-30201885849237444",
      "57740394026041032",
      "-78058727085590368",
      "-9765104390680790",
      "12775821611285210"
    ],
    [
      "61495978385210040",
      "-29067445546388628",
      "51523961126804352",
      "-85148967802524560",
      "71839839220047000",
      "28944086283445360",
      "32833445817232132",
      "55971700698137280",
      "-9113588370382786",
      "22903272882103920",
      "-85011161863803856",
      "37283115088939664",
      "-56246396154165264",
      "21288691088557244",
      "-83894655108451840",
      "16376309096813202",
      "-34066319465637208",
      "52752647548913952",
      "21104417741298676",
      "-64178906381130216",
      "-61034504324197768",
      "60808587819337848",
      "-1351186656393110",
      "-93971297144889824",
      "-63963174819946288",
      "-44513475149869920",
      "-29515542089939116",
      "-35794161260128020",
      "-34670390188694000",
      "-77716201543807984",
      "-42057603597640992",
      "-7178918458521366",
      "16145994886755944",
      "-37670928984880448",
      "-68246640264987944",
      "68076767027378080",
      "-52721921354532240",
      "-96431799232959744",
      "76164945960044864",
      "-51663111895322800",
      "83359554409980768",
      "8230522274971008",
      "-85782185196876528",
      "-75485758483409888",
      "-63593909144401552",
      "-24906000122427940",
      "-78814819455146784",
      "16527093946933746",
      "-86010716855525968",
      "-77813930809497840",
      "-82681663334369664",
      "25373192504048348",
      "93939289450645440",
      "-14045711606740952",
      "-51067110151052472",
      "108435288071632384",
      "-94379708170890816",
      "-90747885406017296",
      "-10522835887968540",
      "15834290534257888",
      "26845904067158700",
      "-60293067246675488",
      "-104695528745651248",
      "25297099724411964"
    ],
    [
      "26446390897035600",
      "53746812045574192",
      "-22366715595126152",
      "-65370261669158936",
      "58189716190099720",
      "18102489411830904",
      "45977532863616944",
      "47774303704500200",
      "81217564642429344",
      "18397588282823564",
      "-72355411946773536",
      "-55551651865243912",
      "-89120388031005856",
      "64991258084774016",
      "-97149611974600",
      "-43901916593313216",
      "-96667528152465824",
      "-31092006713151932",
      "-81280030310153968",
      "-22737685590982436",
      "5100017879158258",
      "40585450828075408",
      "-23126732558012008",
      "-71987591683864592",
      "57229239493608472",
      "-86130931973457344",
      "78591980040073392",
      "-91260641813278192",
      "65823487937450408",
      "67129768431186680",
      "-72069227695465088",
      "1877157599665224",
      "-85024587810039520",
      "-21975811570882796",
      "-53404733538627624",
      "9482351131737232",
      "-11006805114448070",
      "-98685562610626224",
      "36260634660720824",
      "-25325419381260872",
      "-51958817988634112",
      "-47477848827838896",
      "72155714035034176",
      "8198906667530537",
      "14110473915934562",
      "-92143356800079344",
      "-81464491784572608",
      "-10816413909196854",
      "-96830032765865328",
      "-58318011462688448",
      "-84232904016971584",
      "-75440756976604464",
      "-12977527454495430",
      "-3274915739893913",
      "-67411266267299656",
      "31883295625448228",
      "-42670879513025280",
      "65228797495365144",
      "64011320471763608",
      "88763050734996800",
      "-42996056377887728",
      "-28983401134610176",
      "-95946818590164192",
      "-22001197561621664"
    ],
    [
      "-25280870497226716",
      "-55369887501001360",
      "11100852862000466",
      "19496902823448180",
      "31596940010786056",
      "-30893541872501372",
      "-27672667056322096",
      "-44507537037134168",
      "-11839962564408780",
      "32152459025382996",
      "67445285618305208",
      "-74517637491226192",
      "27686486020684244",
      "-79263836145401008",
      "-18262879922986032",
      "57737197726964952",
      "23132994771003724",
      "92068880796432496",
      "-70121802389621736",
      "-101895466446876528",
      "38232721388340000",
      "36225318908691408",
      "76146818697452544",
      "11925662867724896",
      "7542557083070278",
      "4634525161236525",
      "66645354032516480",
      "51329009234905240",
      "-40637299418449400",
      "29683237895369528",
      "-44850599020719528",
      "39436679333448408",
      "-50002139061689376",
      "-66203340888023376",
      "106327988207340240",
      "-52792854607105256",
      "-5089155863970518",
      "86295329034328464",
      "71260787546634672",
      "-43449614197015760",
      "44966351240873336",
      "-2488905331119895",
      "-64050056040287016",
      "39273474365472792",
      "87618663907051088",
      "3118931315839290",
      "-4426840227097273",
      "101676687598228448",
      "-74718147516250608",
      "-110480114817619328",
      "28263678774237632",
      "103854000568389888",
      "-42333304882049560",
      "52647050470113752",
      "-88787980377674096",
      "-80006174743175504",
      "-18255896866321564",
      "-69182924926280976",
      "54615594446659088",
      "3135898616164922",
      "-2456353278830647",
      "-19483653828501700",
      "-64373485743999480",
      "-7223122753202915"
    ],
    [
      "-36710329353809360",
      "-48498183488845824",
      "93059122562408448",
      "89306019246578224",
      "-36699395626783368",
      "-18573217093944548",
      "-147137296153232",
      "72396405041217808",
      "-41654303669929504",
      "-58691177517175672",
      "51775127649307248",
      "-44931404292583464",
      "-70449635386466976",
      "-16492707654833794",
      "-68954393267631528",
      "-92201754450798032",
      "-77939979732036592",
      "-68493410944938656",
      "-49176327884197232",
      "-77455274760723120",
      "-47382701188325880",
      "-61625797301530840",
      "-13709062710404396",
      "26452640071511268",
      "54695721715688704",
      "-28419895097613336",
      "54426968097686768",
      "-23281652480363844",
      "10536722838878632",
      "-56565929204225544",
      "-36292027682065960",
      "-11115659959614276",
      "27557184919714928",
      "-9086208418011666",
      "78804992139339440",
      "59465289115905760",
      "45478425920009616",
      "1549840322695672",
      "-68334974348545072",
      "-57577423751354216",
      "-57970821857452392",
      "52302010357379912",
      "-28724916279315948",
      "28230693191289900",
      "-41189935058355328",
      "20069586113095284",
      "48287346959114072",
      "-46114131808280944",
      "57413585484027864",
      "72747007012367248",
      "77890112996101376",
      "21951144561171532",
      "-47061245888471600",
      "-37213794887065888",
      "-90231426060199744",
      "-39702948182821272",
      "-55757112801074984",
      "-51186569035053256",
      "82526892423629760",
      "30689282342791556",
      "70539519190788272",
      "80299071967601776",
      "-18278209492564200",
      "53172688931226728"
    ],
    [
      "49575302749872208",
      "102059356868267056",
      "-41514702141284944",
      "56387271732091904",
      "-18046308308839796",
      "-82500666379928592",
      "80046944320201872",
      "-30610023066401480",
      "4648415371775627",
      "-2868149662390351",
      "15212547034025192",
      "-50856858491897584",
      "33987250179052352",
      "-21919958293437956",
      "-97744114696979520",
      "49280479550361632",
      "8488944731652737",
      "97399033606052400",
      "35739451646804808",
      "-50624210387468336",
      "-77953815460205072",
      "-64007721841335296",
      "76089367270469664",
      "-7851936854422092",
      "67522615194320680",
      "-99025376141071312",
      "-77926650643348688",
      "-75544863939285280",
      "-55112831294536592",
      "42608913034200672",
      "83260245621204384",
      "74923753738403328",
      "-100765250623226160",
      "18653796985745428",
      "-22512335330247880",
      "9966592304408550",
      "41157089173793792",
      "-309243070660159",
      "-65242648124694824",
      "-73879957199096672",
      "21029485389590264",
      "81838518381118768",
      "79681076109409328",
      "37055682390928272",
      "38814470171928408",
      "58307230472564696",
      "-31169248744845392",
      "97887441515922544",
      "-87355487048625952",
      "-107550702989101408",
      "-31090516597032548",
      "-3839059500023722",
      "-13211338780820370",
      "25314204394817352",
      "-91629751026630400",
      "74035756289958960",
      "-76909378170967104",
      "29882090166211128",
      "-69086298346519472",
      "96274018287658688",
      "-9278328157961368",
      "-2243233611807227",
      "-32022859901189804",
      "-36988630890846256"
    ],
    [
      "18839867785573004",
      "-32799243927001952",
      "24701215326786040",
      "-24530358612537384",
      "82870759069919584",
      "-92914074659347536",
      "98796486854553216",
      "-25970390066504480",
      "-49056433141231536",
      "-93167737126350400",
      "-111053332686424256",
      "26829283684492112",
      "-88547103106975552",
      "94565480947494512",
      "38417387753725048",
      "-5040670745074749",
      "-60703091323375704",
      "22494699805974960",
      "-30144721269607544",
      "42021404951810840",
      "-94799779355525968",
      "-76892063021659856",
      "56211914867162704",
      "23082155734300612",
      "-55598054081201552",
      "-95693625509738928",
      "-80091200768947600",
      "81855267286300656",
      "-49307875335216520",
      "26630418375134468",
      "36855421960353848",
      "-37013147026300432",
      "-37771463394165040",
      "-99083580076694496",
      "-26485595852136612",
      "13035394251346588",
      "12977554462850094",
      "36800380796194080",
      "22678688168525696",
      "-97174718976020816",
      "82274436950683600",
      "51672875881195072",
      "52592717111110688",
      "-34822952002286912",
      "98279953002929680",
      "-10335623286664486",
      "55640578269958496",
      "7631754036992788",
      "-771309656556695",
      "10302524082362652",
      "-85966944694519040",
      "82439526915550224",
      "85615113377571104",
      "7538341917097569",
      "-13428339734673500",
      "69536596536636352",
      "14069585129618644",
      "-42947746813297272",
      "-14348494820296764",
      "-5008078180253506",
      "57525370270013808",
      "255556195043027",
      "24898698553442956",
      "-77358081936836240"
    ],
    [
      "-6144332233816385",
      "39968885481357576",
      "-20824123173952104",
      "49414701759815216",
      "8676551282405853",
      "46942844986915592",
      "87304539978504176",
      "-39251990616321560",
      "-14626957476139068",
      "-74255958199501040",
      "79655833542346960",
      "84444485604763024",
      "-39144553244113920",
      "-86246035993099216",
      "-21542027592658996",
      "-101301066577434544",
      "49334280192852024",
      "51562245935201648",
      "-22451728582382204",
      "75107730925083168",
      "-22023636847734452",
      "-4378917627036571",
      "48336245119571688",
      "62674283981323240",
      "-1592251472175121",
      "89750029146671296",
      "8105025626718998",
      "-6760690361261368",
      "17813608050346374",
      "16213245689868928",
      "31119178980588912",
      "-85210032761096960",
      "-44093329459428784",
      "15648134052753448",
      "-85328616201877600",
      "8150441572070122",
      "-74534699320793152",
      "-99557794630527504",
      "-3407607087865472",
      "-46409722417593000",
      "-7945159450173378",
      "42111705988645552",
      "80610133707523344",
      "86630769073963168",
      "-80319009721279152",
      "-47675605863332752",
      "-92009916901588432",
      "-50340715795755384",
      "60016896575689312",
      "-56340388953685760",
      "33857770264148712",
      "46906415373086928",
      "17956549301743508",
      "14436189085245132",
      "63096150755882264",
      "-64420975744724272",
      "70527277886867520",
      "-91673098504543312",
      "2932726172730326",
      "22933067753911020",
      "-71853451430797576",
      "72559654712677008",
      "-70090577006340024",
      "-9088142774999142"
    ],
    [
      "-28194131329655648",
      "77194407582283024",
      "90661264955997472",
      "46834673732519152",
      "-61209198087453840",
      "-13483877293765544",
      "-4108625464141369",
      "19091906026005744",
      "-42012520134449008",
      "-70635855197906496",
      "38087617605924608",
      "-20619725808501244",
      "57210333645343784",
      "3188879461959004",
      "28196495026350020",
      "2575055230408907",
      "-25495205074548720",
      "-8452283218502998",
      "-7355574518442154",
      "-66917419433593752",
      "-62614232301712040",
      "-34111190587282180",
      "-62630899250507352",
      "-49551595002412800",
      "87424330413341520",
      "-52835110574960712",
      "13385129161179066",
      "42546793818473816",
      "9045802056789398",
      "-12298931367695332",
      "-58569177985191344",
      "49745861440896984",
      "-66103585064411160",
      "-102461040019989008",
      "17352191731333732",
      "-42638171464204792",
      "-52752163261175152",
      "-45780166983604432",
      "-46629857271909712",
      "64344577491283416",
      "2340142615139484",
      "-7590425200760365",
      "76315574347972864",
      "74335269629955296",
      "-10283000767230988",
      "79925432801246640",
      "-92891551554203040",
      "105143822729587552",
      "73863640427589424",
      "-46943653374910352",
      "5123478360474110",
      "66887311637401584",
      "-45977640897035600",
      "-80445826053619392",
      "-3587584476917982",
      "23708354681730272",
      "54094020277261736",
      "57332370430231096",
      "58121841400861744",
      "-60796678066253664",
      "-88458500802516944",
      "37774603813886640",
      "33207982778549196",
      "51546357572078704"
    ],
    [
      "48579495400190352",
      "-38182429969310760",
      "-49355987459421160",
      "-41450094431638720",
      "16392901539802552",
      "33265039324760436",
      "104458659887313840",
      "44423371553421024",
      "91834090650081632",
      "-22419562563300132",
      "-30467519536614420",
      "6720989476889372",
      "-79242974519729616",
      "-46787735074758528",
      "37242922931909560",
      "43982185423374176",
      "-93161500990390784",
      "108726978302001952",
      "-77634915709495552",
      "46271789819002152",
      "-90897127985954288",
      "-116389781236648560",
      "-45527417212724688",
      "-21077672019600868",
      "15730731189250946",
      "67682236433029176",
      "78126549720764160",
      "58521226048469544",
      "29291845858097076",
      "24631991982460020",
      "-60017868876457216",
      "-97200848162174224",
      "75920306146144864",
      "-63181839883327488",
      "5341192707419395",
      "14436026103794574",
      "72989240288734432",
      "-56907821446657184",
      "28624434024095536",
      "-69138720631599424",
      "87299294769763952",
      "63503749668598176",
      "16318427398800850",
      "-52878655493259432",
      "73368549346923824",
      "-81722773611545568",
      "45217886567115784",
      "-13463386334478856",
      "72548910975456240",
      "-75410947203636176",
      "-49942389130592344",
      "91525636613368992",
      "-63532292842864992",
      "-75784444808959968",
      "8159860037267208",
      "-16579944640398026",
      "-44879138469696048",
      "-49550056457519528",
      "10289212688803672",
      "-63035622239112856",
      "-6478367373347282",
      "-82404144108295440",
      "73396518826484688",
      "-31772363930940628"
    ],
    [
      "15149060636758804",
      "87317608296871184",
      "4288995172828436",
      "-36965794861316680",
      "-81618674099445344",
      "-31601689755916596",
      "-43645508587360384",
      "-77782206237316128",
      "78491769731044768",
      "46243768185377120",
      "28649570420384408",
      "80506205558776848",
      "61203185468912128",
      "4695561714470387",
      "64737759530544280",
      "44802989810705184",
      "-97784757614135744",
      "-42451173067092896",
      "53221359848976136",
      "56657809764146808",
      "35144787281751632",
      "-47843348234891888",
      "-86345560848712928",
      "76688468456268304",
      "-48180211335420608",
      "23676592856645584",
      "82695491611957552",
      "58480843901634216",
      "-65927326679229736",
      "-32849960029125212",
      "-7566364947706461",
      "-87152294814586640",
      "-5003492347896099",
      "29745383188128472",
      "59956930577754976",
      "41955173015594480",
      "-10193947702646256",
      "79480305314064032",
      "-9212359786033630",
      "27133848518133164",
      "-4381659440696239",
      "-46625465154647824",
      "-88331371545791632",
      "-42785797268152240",
      "-57653799653053280",
      "53945854306221008",
      "63587017357349392",
      "61219867318868640",
      "-68916238844394680",
      "-75016587972640992",
      "-39877288043498992",
      "-61085909605026248",
      "-9266392327845096",
      "80082096159458160",
      "21810049191117288",
      "57609781622886656",
      "32546292990446092",
      "-75920276343822480",
      "-18266957253217696",
      "84244191646575920",
      "-13749990612268448",
      "-81770405173301696",
      "27771504595875740",
      "87070941925048832"
    ],
    [
      "73595896363258368",
      "13151681981980800",
      "-90627349913120272",
      "69969691336154936",
      "8300596848130226",
      "19775111228227616",
      "79441696405410768",
      "39756067097187040",
      "12617439962923526",
      "-12023196555674076",
      "3039004513993859",
      "2776857931166887",
      "-19108293578028680",
      "18406970426440240",
      "14742832630872726",
      "-15482928603887558",
      "2830584533512592",
      "-62110688537359240",
      "26570325717329980",
      "76187700033187872",
      "15591060742735862",
      "-45502163469791416",
      "83274945616722112",
      "-96491456031799312",
      "-40154546499252320",
      "40263622999191288",
      "-7243090309202671",
      "-23781185969710352",
      "-62752597033977512",
      "21196976304054260",
      "47927767038345336",
      "33562187105417252",
      "-19963661208748816",
      "-74296258389949792",
      "31936638057231904",
      "80072969198226928",
      "90751372277736656",
      "-53747437894344328",
      "-37908717989921568",
      "-77173039317131040",
      "77895835041999824",
      "88066056370735168",
      "-1084384275600314",
      "66538967192173008",
      "-25208085775375368",
      "11112068779766560",
      "76644718647003168",
      "19148804247379304",
      "29647113755345344",
      "79995416104793552",
      "-97751170396804816",
      "76023593544960016",
      "409247557399794",
      "-83961904048919680",
      "-10597717948257924",
      "87536416947841648",
      "2974194241687655",
      "-44296655803918840",
      "55394101887941360",
      "48948086798191072",
      "-83289258182048800",
      "-11921211145818234",
      "-16247546300292016",
      "62085557729005816"
    ],
    [
      "27329610660672188",
      "-22602638229727744",
      "11857218109071254",
      "10337261483073234",
      "-77524095773696896",
      "89570015668869024",
      "-70182256400585176",
      "23514334112405776",
      "48854202032089232",
      "-47973301261663440",
      "26627326384186744",
      "-51938317716121672",
      "30881775543093680",
      "-58215387165546416",
      "19597927108407020",
      "-78539632260799408",
      "-21920606493949892",
      "-30540261417627336",
      "-65400101244449616",
      "31772129237651824",
      "17090139910578728",
      "-95408618450164800",
      "40139891207218168",
      "70190131664276120",
      "-86679890751838688",
      "-87964020669460304",
      "84764160215854640",
      "31698856502771376",
      "-227957963943481",
      "-29287828132510184",
      "-50272513180971144",
      "54792646318674088",
      "30400834977626800",
      "8344287984073162",
      "102667689323425296",
      "76689966022968288",
      "-75159534811973568",
      "46576511114835736",
      "41074559092521664",
      "-5182024557143450",
      "52197441458702088",
      "75650595128536224",
      "48158299177885056",
      "-42601756751537320",
      "88205821812152864",
      "-27703288942575456",
      "12239414267241954",
      "-40472652763128280",
      "-51065798848867416",
      "25138571858406068",
      "13192553073167800",
      "12751526199281216",
      "104934044182300560",
      "-36661725491285328",
      "59970427304506304",
      "-88318042457103728",
      "-24096665903925896",
      "-56742671877145768",
      "-12929066084325314",
      "30329164117574692",
      "-35508688539266588",
      "63238203525543216",
      "-113153934478759760",
      "-80226927995681760"
    ],
    [
      "-38095448166131976",
      "32189056277275084",
      "-72490580379962928",
      "24459006264805792",
      "-97645483911037440",
      "21171459928154944",
      "-29800381511449812",
      "10928285308182240",
      "23030810058116912",
      "-22240079939365388",
      "-57594954967498776",
      "-36624841392040256",
      "21193230524659156",
      "39773382246494296",
      "16423959285020828",
      "75078383088111872",
      "3606859827414155",
      "69603130221366880",
      "-10002293623983860",
      "68696454167366024",
      "32224740833044052",
      "-95184326171875008",
      "-17595866695046424",
      "-24731112644076348",
      "-18784921616315840",
      "-93707226216793056",
      "8063388988375664",
      "79299181699752800",
      "88682450354099280",
      "64254634082317352",
      "-1528231543488800",
      "3683939808979630",
      "78859284520149232",
      "-70167973637580872",
      "55464472621679304",
      "89630067348480224",
      "-54328847676515576",
      "-92529892921447760",
      "68224303424358368",
      "-63795045018196104",
      "65417610108852384",
      "88915951550006864",
      "8177669718861580",
      "-72380222380161280",
      "-21825801581144332",
      "-8511377498507500",
      "-13569578528404236",
      "86074687540531152",
      "-55789455771446232",
      "74826374650001520",
      "-37472568452358248",
      "-23167712613940240",
      "19065916538238524",
      "2808175981044769",
      "-11616703122854232",
      "-48181012272834776",
      "-52362840622663496",
      "48015721142292024",
      "28871014714241028",
      "-27369711548089980",
      "-15463821589946746",
      "-94782441854476928",
      "-97310505807399744",
      "42451385408639904"
    ],
    [
      "-83369776606559760",
      "63661009073257448",
      "-60682669281959536",
      "-19754240289330484",
      "-74409574270248416",
      "84253482520580288",
      "27804682031273840",
      "7693413179367781",
      "-65720975399017336",
      "26054510846734048",
      "-76086752116680144",
      "-2867138478904962",
      "-59103120118379592",
      "-10807032696902752",
      "21637210622429848",
      "23257013410329820",
      "-29739610850811004",
      "75094722211360928",
      "83140671253204352",
      "18217759206891060",
      "-13497307896614074",
      "3420885186642408",
      "-22286931052803992",
      "48040471971035000",
      "-16337018460035324",
      "-70422507822513584",
      "27268288657069208",
      "-84207870066165920",
      "8951209485530853",
      "-19614934921264648",
      "75800962746143344",
      "28062403202056884",
      "-14691320247948170",
      "-55790711194276808",
      "5194128025323153",
      "40995828807353976",
      "38904771208763120",
      "82104258239269264",
      "-1051143626682460",
      "-94464510679244992",
      "-76183140277862544",
      "73666714131832128",
      "-3290063701570034",
      "32102648168802260",
      "89170999825000768",
      "24224229156970976",
      "80645836889743808",
      "-53450752049684528",
      "-15845008194446564",
      "77377639710903168",
      "-11344753205776214",
      "25290714576840400",
      "28072752058506012",
      "50449706614017488",
      "38234114646911624",
      "67179761826992032",
      "-40813528001308440",
      "82087330520153040",
      "-46527802944183352",
      "-91303385794162752",
      "-30337857082486152",
      "1242207828909158",
      "-107199817895889280",
      "-91421984136104576"
    ],
    [
      "-102308824658393856",
      "96419967710971840",
      "-76810024678707120",
      "54347675293684008",
      "-38337100297212600",
      "-40090825408697128",
      "-26942841708660124",
      "63664503395557400",
      "33083092421293260",
      "-53134411573410032",
      "-11771021410822868",
      "-36805327981710432",
      "22310815751552580",
      "-73625579476356512",
      "-93302257359027856",
      "-9916538372635842",
      "22492945194244384",
      "5584440659731627",
      "-43935410678386688",
      "64737953245639800",
      "76634272933006288",
      "-25804331526160240",
      "-4747997503727674",
      "-59640675783157352",
      "-71008339524269104",
      "14003677293658256",
      "-39148546755313872",
      "-66130287945270536",
      "-67735902965068816",
      "72334557771682736",
      "38743987679481504",
      "-77208302915096288",
      "9715733118355274",
      "-4673698917031288",
      "11623171158134938",
      "43429069221019744",
      "46111259609460832",
      "937209697440266",
      "43019097298383712",
      "27571959421038628",
      "22083673626184464",
      "11970926076173782",
      "-31139295548200608",
      "26765381917357444",
      "42510457336902616",
      "62522277235984800",
      "8782436139881611",
      "-37601701915264128",
      "10689375922083854",
      "-101397559046745296",
      "13624869287014008",
      "112499676644802096",
      "-91102105216123",
      "-79166777431964880",
      "19104227423667908",
      "-44020622968673704",
      "57400073856115344",
      "-58153055608272552",
      "30951194465160368",
      "-69960251450538632",
      "-94769105315208432",
      "-87256915867328640",
      "-74492186307907104",
      "-61200514435768128"
    ],
    [
      "-56448824703693392",
      "20804869011044504",
      "50125837326049808",
      "2803183859214186",
      "42913563549518584",
      "55342324078083040",
      "91824322938919072",
      "-27015719562768936",
      "67335695028305056",
      "39209365844726560",
      "-28362832963466644",
      "85892617702484128",
      "-4161798860877752",
      "-48770472407341000",
      "2888534218072891",
      "19640572369098664",
      "-81478260457515712",
      "81562243402004240",
      "8885032497346401",
      "46079713851213456",
      "-93376733362674720",
      "-59265971183776856",
      "3416331484913826",
      "-3804155858233571",
      "-17265528440475464",
      "851897639222443",
      "-63529118895530704",
      "-43041359633207320",
      "-11836387217044830",
      "-23609546944499016",
      "-6032273173332214",
      "-6875222548842430",
      "78198567032814032",
      "-77437207102775568",
      "18326506018638612",
      "-85379123687744144",
      "49739498645067216",
      "66858515143394472",
      "-79137749969959264",
      "-52745319902896880",
      "60977257788181304",
      "58054793626070024",
      "-46886928379535672",
      "-92305310070514672",
      "-28182087466120720",
      "55025868117809296",
      "56176107376813888",
      "17150534316897392",
      "25972606614232064",
      "73521845042705536",
      "-84898114204406736",
      "62494765967130664",
      "-35432353615760804",
      "5397424101829529",
      "-42954467236995696",
      "63795633614063264",
      "44445019215345384",
      "-49539823085069656",
      "-34613691270351408",
      "-97202479839324944",
      "-64899832010269168",
      "-28565708547830580",
      "-87430670857429504",
      "-78749574720859520"
    ],
    [
      "14742446132004262",
      "20897570997476576",
      "58477122336626056",
      "-94119668006896976",
      "-90702757239341728",
      "-67034274339675904",
      "71608304977416992",
      "-72714112699031824",
      "39179746061563488",
      "-78728623688220976",
      "76311357319355008",
      "44835209846496584",
      "-83853945136070256",
      "86546309292316432",
      "-17770346254110336",
      "71045212447643280",
      "-42190525680780408",
      "-36198444664478304",
      "-55378448218107224",
      "87338805198669440",
      "87563313543796544",
      "-26998024433851244",
      "-12510754168033600",
      "-46053435653448104",
      "-77574931085109712",
      "-26785399764776228",
      "9459894150495530",
      "-18316967412829400",
      "-57192571461200712",
      "94338618218898768",
      "77766291797161104",
      "-54604131728410720",
      "-15982637181878090",
      "54726857692003248",
      "35303894430398940",
      "-52656728774309160",
      "40523659437894824",
      "-17906727269291878",
      "-80118902027606960",
      "77117890119552608",
      "-70133931934833528",
      "32691728323698044",
      "4184187389910221",
      "-7960343733429909",
      "80020703375339504",
      "65158419311046600",
      "75763732194900512",
      "7539508864283562",
      "-90183809399604800",
      "37839915603399280",
      "37302739918231968",
      "72768010199069984",
      "98584532737731936",
      "-14186431653797626",
      "70321865379810336",
      "-53236372768878936",
      "-39019234478473664",
      "-81247769296169280",
      "-42730167508125304",
      "-22110266610980032",
      "79163089394569392",
      "1234424300491809",
      "52290886640548704",
      "77283464372158048"
    ],
    [
      "60452558100223544",
      "-55324371904134752",
      "20417854189872740",
      "-59571351855993272",
      "-37374425679445264",
      "-20420020446181296",
      "61055488884449008",
      "10065969079732894",
      "100379288196563728",
      "-58759223669767376",
      "64965449273586272",
      "-92540390789508816",
      "-53883783519268032",
      "-25137405842542648",
      "-77911764383316048",
      "-7037593983113766",
      "3383157774806022",
      "100332498550415040",
      "-55203925818204880",
      "-31746644526720048",
      "-72756223380565648",
      "9957383386790752",
      "-48285201191902160",
      "-73278896510601040",
      "62431119382381440",
      "-87645493447780608",
      "-10269394144415856",
      "-52508253604173664",
      "-5936533212661743",
      "-26187609881162644",
      "-69155625998973848",
      "-62496494501829144",
      "-52878711372613904",
      "46944823116064072",
      "34516017884016036",
      "66105686128139496",
      "89116603136062624",
      "-21260159090161324",
      "-32470185309648512",
      "-51489349454641344",
      "60275662690401080",
      "89066781103610992",
      "10543676093220710",
      "9446640498936176",
      "58263551443815232",
      "-82832820713520048",
      "8695715107023716",
      "84224864840507504",
      "71192130446434024",
      "72389297187328336",
      "2669168403372168",
      "-47607354819774624",
      "-51908988505601880",
      "23332767188549040",
      "-67862078547477720",
      "38562946021556856",
      "39934594184160232",
      "1002813922241330",
      "56608673185110096",
      "-20973511040210724",
      "81674359738826752",
      "26287140324711800",
      "-97774915397167200",
      "2116556977853179"
    ],
    [
      "36283917725086216",
      "72629146277904512",
      "30409384518861772",
      "-63382327556610104",
      "-7046800572425127",
      "-46343527734279632",
      "28346242383122444",
      "-25764908641576768",
      "83647973835468288",
      "44785525649785992",
      "81817984580993648",
      "-91426074504852288",
      "-70714779198169712",
      "-42494181543588640",
      "-56917835026979448",
      "51550541073083880",
      "-58208663016557696",
      "-69826893508434296",
      "-57115320116281512",
      "62413681298494336",
      "39810657501220704",
      "76137170195579536",
      "-66376589238643648",
      "-67377947270870208",
      "-19279247149825096",
      "-69959223270416256",
      "21787779405713080",
      "-35146292299032212",
      "56585066020488736",
      "-40609262883663176",
      "-68574219942092896",
      "639983103610575",
      "-74559204280376432",
      "-62979079782962800",
      "-79747475683689120",
      "18637834116816520",
      "58606609702110288",
      "-37319019436836240",
      "-54743990302085880",
      "71780249476432800",
      "23283345624804496",
      "-68566404283046720",
      "-103523731231689456",
      "-85957512259483344",
      "23877458646893500",
      "50901040434837344",
      "40930666029453280",
      "-49916166812181472",
      "60723323374986648",
      "57709451764822008",
      "15376499854028224",
      "18637003377079964",
      "-91088324785232544",
      "31704694032669068",
      "25749467313289644",
      "59037309139966968",
      "-29871759936213492",
      "-6843715440481901",
      "9354243986308574",
      "53168766200542448",
      "-47288540750741960",
      "12844639830291272",
      "-4350563511252403",
      "2430812455713749"
    ],
    [
      "79765401780605312",
      "12966715730726718",
      "72803661227226256",
      "57164479047060016",
      "56984245777130128",
      "-96928417682647712",
      "-63170976936817168",
      "-24296842515468596",
      "85628882050514224",
      "26864744722843172",
      "20183218643069268",
      "-25929272174835204",
      "54360721260309216",
      "14732622541487216",
      "56693114340305328",
      "48044007271528248",
      "24981774389743804",
      "2585861599072814",
      "-94057157635688784",
      "-68091310560703280",
      "3823311068117618",
      "17023606225848198",
      "69008074700832368",
      "10670744813978672",
      "68635247647762296",
      "-59181582182645800",
      "85160449147224432",
      "69936543703079224",
      "-75694330036640160",
      "51710478961467744",
      "-23905035108327864",
      "-61368703842163088",
      "-87051987648010256",
      "-28304079547524452",
      "-30855637043714524",
      "-8456143550574780",
      "-69360718131065368",
      "18357558175921440",
      "-102542817592620848",
      "3819864243268966",
      "-10991867631673812",
      "-68298347294330600",
      "-43135512620210648",
      "70530623197555544",
      "-51736768335103992",
      "-44692676514387128",
      "24300387129187584",
      "-11264342814683914",
      "-89679941534996032",
      "4133800975978374",
      "-84848493337631232",
      "16719255596399308",
      "-29959140345454216",
      "70505917072296144",
      "-91730833053588864",
      "45921478420495984",
      "13191864825785160",
      "75634613633155824",
      "46112805604934696",
      "80905213952064512",
      "-38051370531320568",
      "-83636745810508736",
      "3212967421859503",
      "-44732920825481416"
    ],
    [
      "17172170802950860",
      "102446854114532464",
      "-96041448414325712",
      "7463424466550350",
      "-48072513192892072",
      "87253756821155552",
      "25659533217549324",
      "-463446223875507",
      "97949497401714320",
      "9843302890658378",
      "8676555007696152",
      "70892564952373504",
      "5324576050043106",
      "96362389624118800",
      "-48325795680284504",
      "15716206282377244",
      "79938255250453952",
      "-61001591384410856",
      "-36457978188991544",
      "63990816473960880",
      "60369189828634264",
      "-50664924085140232",
      "81606887280941008",
      "-36505818367004392",
      "-5874392110854387",
      "-59500738978385928",
      "-77371500432491296",
      "59181280434131624",
      "21390251815319060",
      "79174652695655824",
      "-3723933128640055",
      "-70604108273983000",
      "6104089319705963",
      "-33584840595722200",
      "-46431381255388256",
      "-50620984286069872",
      "-83354040980339056",
      "-84891371428966528",
      "-4024028778076172",
      "29846545308828352",
      "-44861476868391040",
      "-39207682013511656",
      "-45180559158325192",
      "-21848987787961960",
      "49344148486852648",
      "30509926378726960",
      "65873183310031888",
      "-51907591521739960",
      "-70782795548439024",
      "-76251789927482608",
      "-53894475102424624",
      "51094181835651400",
      "-65097317099571232",
      "17071671783924102",
      "-5034776870161295",
      "-53438760340213776",
      "-40839090943336488",
      "9469705633819104",
      "-7664676755666733",
      "-15494704246520996",
      "-46108350157737728",
      "59668719768524168",
      "-81575959920883184",
      "-9436824358999730"
    ],
    [
      "-27568452060222624",
      "68580947816371920",
      "91085396707057952",
      "-70718117058277128",
      "-4077065736055374",
      "-2532685874029994",
      "-88473044335842128",
      "69252379238605496",
      "-25355901569128036",
      "209349047509022",
      "37498645484447480",
      "-48152614384889600",
      "54407484829425808",
      "83005182445049280",
      "12608455494046212",
      "-190573540749028",
      "-42667198926210400",
      "19588135182857512",
      "-33730734139680864",
      "49025427550077440",
      "-91089896857738496",
      "-28767481446266176",
      "10817399248480796",
      "3905241144821048",
      "-43087653815746304",
      "37049785256385800",
      "-62131900340318680",
      "-68873904645442960",
      "38063131272792816",
      "16104564070701600",
      "-56072778999805448",
      "16555933281779290",
      "-85538342595100400",
      "-31694747507572176",
      "-19565040245652200",
      "70547290146350864",
      "-102963082492351536",
      "-92788897454738624",
      "53825534880161288",
      "24282082915306092",
      "-36457564681768416",
      "8642223663628101",
      "-53540453314781192",
      "-68189084529876712",
      "-32617881894111632",
      "-92069365084171296",
      "48433884978294376",
      "25998849421739580",
      "49119982868433000",
      "-75132735073566432",
      "-45013863593339920",
      "12740026228129864",
      "37933852523565296",
      "-42622044682502744",
      "-39533428847789768",
      "-17059784382581710",
      "-48190712928771976",
      "-75072288513183600",
      "-76101310551166528",
      "-77788822352886192",
      "39499845355749128",
      "33982526510953904",
      "-89130856096744544",
      "-53743135184049608"
    ],
    [
      "-61949137598276136",
      "35564746707677840",
      "2603954868391156",
      "-9165312163531780",
      "43903753161430360",
      "-18144454807043076",
      "-36787290126085280",
      "80161981284618384",
      "59713542461395264",
      "33465221524238588",
      "-73975808918476112",
      "12341360561549664",
      "-364700768841430",
      "-70299096405506136",
      "-86533568799495696",
      "-47668185085058216",
      "-50769619643688200",
      "23397218436002732",
      "80613523721694944",
      "67687273025512696",
      "24308308959007264",
      "46697940677404400",
      "19213786348700524",
      "-66988587379455568",
      "64556777477264408",
      "-8626013062894344",
      "-97745947539806368",
      "46581588685512544",
      "-67998006939888000",
      "-40462829172611240",
      "-79404540359973904",
      "54567374289035800",
      "12465027160942554",
      "-87945006787776944",
      "-61973817646503448",
      "36795228719711304",
      "-30446527525782584",
      "-94277858734130864",
      "-14165731146931648",
      "-76682843267917632",
      "-48076897859573368",
      "33476699143648148",
      "-75474120676517488",
      "-6562560331076384",
      "19171331077814104",
      "62127724289894104",
      "88938310742378240",
      "-65646409988403320",
      "9090710431337356",
      "67964091897010800",
      "-5385615862905979",
      "78087933361530304",
      "8988995105028152",
      "-4739709664136171",
      "43326988816261288",
      "17302056774497032",
      "-95407597720623024",
      "-44129740446805952",
      "57847172021865848",
      "-83675637841224672",
      "-18088564276695252",
      "17495866864919662",
      "-65180659294128416",
      "44929947704076768"
    ],
    [
      "-91925144195556640",
      "-50717737525701520",
      "66178388893604280",
      "52892483770847320",
      "-60350261628627776",
      "-43162688612937928",
      "14695575460791588",
      "-72916463017463680",
      "78520603477954864",
      "31766802072525024",
      "-102096050977706912",
      "25838864967226984",
      "28493514284491540",
      "35635903477668764",
      "-88887274265289312",
      "-106931187212467200",
      "-62221217900514600",
      "14597625471651554",
      "-66434375941753384",
      "-61104312539100648",
      "-23981004953384400",
      "-22132106125354768",
      "50532255321741104",
      "-99446348845958704",
      "-31992554664611816",
      "33375330269336700",
      "17658714205026626",
      "37252396345138552",
      "-8359752595424652",
      "-4494159482419491",
      "-31388275325298308",
      "-4451568704098463",
      "-86375519633293152",
      "-95329850912094112",
      "49408227205276488",
      "-54095812141895296",
      "47963771969079968",
      "6006451323628426",
      "7244687993079424",
      "-97396634519100192",
      "-41814837604761120",
      "25510115548968316",
      "82389853894710544",
      "59206377714872360",
      "99352426826953888",
      "43498333543539048",
      "-56203380227088928",
      "-30579613521695136",
      "24201123043894768",
      "33386286348104476",
      "-63609927892684936",
      "-16442717984318734",
      "-41861828416585920",
      "-17976935952901840",
      "57268481701612472",
      "-5420809611678123",
      "44991325587034224",
      "-51133356988430024",
      "-49747895449399952",
      "11268675327301026",
      "-94223260879516608",
      "-19501592963933944",
      "62362253665924072",
      "12928982265293598"
    ],
    [
      "-76495029032230384",
      "71706846356391904",
      "99256783723831184",
      "32152038067579268",
      "-15818588435649872",
      "-94939976930618288",
      "44860951602458952",
      "8360154926776886",
      "-8196178823709488",
      "80013096332550048",
      "83249390125274656",
      "-59668507426977160",
      "39595235139131544",
      "88587626814842224",
      "34978467971086504",
      "-48148486763238904",
      "-9558673016726970",
      "9729464538395404",
      "-74460513889789584",
      "-97009755671024320",
      "-31437270343303680",
      "47834359109401704",
      "67832164466381072",
      "-63122108578681944",
      "68923860788345336",
      "-102540031075477600",
      "966471561696380",
      "11609365232288838",
      "-31486056745052336",
      "-77116027474403376",
      "-6249832455068827",
      "-58244276791810992",
      "-19480437040328980",
      "25207400321960448",
      "77593103051185600",
      "-59513807296752928",
      "-29451452195644380",
      "64753502607345584",
      "96709072589874272",
      "78503809869289392",
      "-71534603834152224",
      "89649766683578496",
      "29670732095837592",
      "-31528349965810776",
      "50974614918231968",
      "18769055604934692",
      "20331744104623796",
      "69636516273021696",
      "55209364742040632",
      "-30941590666770936",
      "18916403874754904",
      "-26446368545293808",
      "-59568971395492552",
      "-7475680205971003",
      "13969881460070610",
      "80752648413181312",
      "-54420020431280136",
      "1744502107612788",
      "-49403514713048936",
      "-93110680580139168",
      "23407995700836180",
      "58832719922065736",
      "6636390462517738",
      "93707241117954256"
    ],
    [
      "-63960961997509000",
      "91131709516048432",
      "39692189544439312",
      "-47528237104415896",
      "-89942350983619696",
      "-70344649255275728",
      "93226231634616848",
      "-94242885708808896",
      "-14228157699108124",
      "14158674515783786",
      "23024318739771844",
      "-8866679854691029",
      "76638333499431616",
      "-65755270421504976",
      "-53296063095331192",
      "-65955802798271176",
      "-53269755095243456",
      "-4525981843471527",
      "86981900036334992",
      "56066762655973432",
      "19356958568096160",
      "-21047553047537804",
      "82021892070770256",
      "50502132624387744",
      "-28539141640067100",
      "-26998290792107584",
      "39639588445425032",
      "36375418305397032",
      "95694161951541904",
      "46132061630487440",
      "68319015204906464",
      "52078459411859512",
      "-39980780333280560",
      "79832434654235840",
      "-28481436893343924",
      "-16088254749774932",
      "-84524661302566528",
      "72289519011974336",
      "-65406464040279392",
      "79769186675548560",
      "-94179511070251472",
      "9521942585706710",
      "-95964692533016208",
      "90103775262832640",
      "63159219920635224",
      "-32910492271184920",
      "-77595666050910944",
      "-84193333983421328",
      "-13463884592056274",
      "-15789132565259934",
      "-85628531873226160",
      "-5615117494016886",
      "80307744443416592",
      "-52707362920045856",
      "39089001715183256",
      "-86183510720729824",
      "89076027274131776",
      "-80580331385135648",
      "-48308130353689192",
      "17436275258660316",
      "-26432992890477180",
      "-5631956737488508",
      "48970378935337064",
      "79444147646427152"
    ],
    [
      "42061954736709592",
      "56258272379636768",
      "-101909592747688288",
      "29657524079084396",
      "32499663531780244",
      "-42516566812992096",
      "52443228662014008",
      "70726454257965088",
      "11623521335422992",
      "-46661876142024992",
      "65196134150028232",
      "74473574757575984",
      "-96420608460903168",
      "21954804658889772",
      "50375401973724368",
      "-17688140273094178",
      "-96452862024307248",
      "-48873119056224824",
      "-75724855065345760",
      "-85658989846706384",
      "-30565852299332620",
      "74821576476097104",
      "-21018691360950468",
      "68268485367298128",
      "-70002458989620208",
      "39795625954866408",
      "56780915707349776",
      "65342843532562256",
      "75989849865436560",
      "-7750555407255888",
      "-16691489145159722",
      "53528092801570896",
      "74089929461479184",
      "11375996284186840",
      "-63754126429557800",
      "-29343111440539360",
      "47923222184181216",
      "-54974000900983808",
      "-34826666116714476",
      "15166940167546272",
      "-19355177879333496",
      "-83643071353435520",
      "86962796747684480",
      "-57272534817457200",
      "13305587694048882",
      "-22633062675595284",
      "-44813230633735656",
      "51742922514677048",
      "-51582980901002880",
      "-26598347350955008",
      "-16602318733930588",
      "49298085272312168",
      "77250212430953984",
      "-47931190580129624",
      "3306176979094743",
      "3526420798152685",
      "-83623252809047696",
      "64405299723148344",
      "34442462027072908",
      "-87926968932151792",
      "-9380286559462548",
      "-32236985862255096",
      "-72500817477703088",
      "20292052999138832"
    ],
    [
      "-59316862374544144",
      "25023385882377624",
      "90628214180469520",
      "-88842883706092832",
      "63405863940715792",
      "-84974974393844608",
      "-18761742860078812",
      "-71852311491966248",
      "-33524993807077408",
      "-41147526353597640",
      "53403023630380632",
      "86942717432975776",
      "42171508073806760",
      "-63361085951328280",
      "17707107588648796",
      "-78039817512035376",
      "-502901501022279",
      "-16214758157730102",
      "-65258167684078216",
      "-16097823157906532",
      "82893341779708864",
      "24092134088277816",
      "25947650894522668",
      "96229813992977136",
      "14784340746700764",
      "77783197164535520",
      "48362012952566144",
      "-90633213520050048",
      "-30161507427692412",
      "60955796390771864",
      "12556874193251132",
      "-39813093841075896",
      "20595094189047812",
      "60892544686794280",
      "95467120409011840",
      "88246889412403104",
      "-80707974731922144",
      "12511143460869790",
      "-56043013930320736",
      "-44897213578224184",
      "11911444365978240",
      "-56120693683624264",
      "-24381536990404128",
      "-17121391370892524",
      "-80360613763332368",
      "98472826182842256",
      "33132184296846388",
      "-13325649313628674",
      "46927798539400104",
      "-51940742880105976",
      "41916660964488984",
      "66445291042327880",
      "53512338548898696",
      "-29538113623857500",
      "57970266789197920",
      "36580819636583328",
      "-47409597784280776",
      "81459492444992064",
      "-40872823446989056",
      "41752725839614872",
      "14919740147888660",
      "-59336651116609576",
      "28175462037324904",
      "82099810242652896"
    ],
    [
      "-31553126871585844",
      "86237452924251552",
      "-49373298883438112",
      "-12594829313457012",
      "-26384698227047920",
      "-55692709982395176",
      "-54403308779001232",
      "-52285317331552504",
      "-12337361462414264",
      "40733110159635544",
      "75582094490528112",
      "88345177471637728",
      "39403844624757768",
      "23959102109074592",
      "34262411296367644",
      "-74240341782569888",
      "-69030992686748504",
      "82151152193546288",
      "-78270941972732544",
      "-41621465235948560",
      "-29188718646764756",
      "-74717521667480464",
      "-34691218286752700",
      "-86385838687419888",
      "1403525471687317",
      "-93670241534709936",
      "51334835588932040",
      "-14479158446192742",
      "352814793586730",
      "13140029273927212",
      "56417174637317656",
      "67653983831405640",
      "52572872489690784",
      "-3515777643769979",
      "78456811606884000",
      "-50481237471103672",
      "86815088987350464",
      "58986775577068328",
      "-70357277989387512",
      "19092824310064316",
      "88753089308738704",
      "-24335477501153944",
      "32285399734973908",
      "88597744703292848",
      "-67929737269878384",
      "-66530868411064144",
      "21449694409966468",
      "44945053756237032",
      "37741016596555712",
      "-16857376322150230",
      "61644285917282104",
      "-40810961276292800",
      "-72177767753601072",
      "-86904212832450864",
      "-21765008568763732",
      "-55376898497343064",
      "-16191693022847176",
      "23038780316710472",
      "-27283146977424620",
      "-24880565702915192",
      "-94892688095569616",
      "-92418022453784944",
      "-100437767803668976",
      "-53732089698314664"
    ],
    [
      "-72844281792640688",
      "892630545422434",
      "-2694807248190045",
      "-76074987649917600",
      "76690264046192176",
      "-62880948185920712",
      "83342976868152624",
      "6938222795724869",
      "-77221252024173744",
      "73155164718627936",
      "-16360567882657052",
      "10154455900192260",
      "-43950051069259640",
      "-19237490370869636",
      "53945939987897872",
      "50528079271316528",
      "-47149322926998136",
      "61794940382242200",
      "68097107112407688",
      "-20879505202174188",
      "2083938568830490",
      "-83041951060295104",
      "-3465811489149928",
      "40620949119329456",
      "-60338012874126432",
      "58422360569238664",
      "-54900392889976504",
      "-110150575637817376",
      "-8617833256721497",
      "16393713653087616",
      "69013290107250216",
      "39277233183383944",
      "-26579219847917556",
      "-2835506107658148",
      "-62731288373470304",
      "66343910992145536",
      "-87106317281723024",
      "40491692721843720",
      "42350605130195616",
      "31737536191940308",
      "-30761515721678732",
      "73355823755264288",
      "-83988547325134272",
      "2151885535567999",
      "-29539698734879492",
      "42879704385995864",
      "76503984630107872",
      "-56102830916643144",
      "13558956794440746",
      "47702137380838392",
      "-39592884480953216",
      "62155440449714664",
      "-6129044573754072",
      "30243901535868644",
      "2454855246469378",
      "-97554817795753472",
      "-83352647721767424",
      "41296780109405520",
      "-38692865520715712",
      "-68062715232372280",
      "52674856036901472",
      "-63427947461605072",
      "34940149635076524",
      "-65343111753463744"
    ],
    [
      "-3451843746006489",
      "779180903919041",
      "-61240609735250472",
      "-9605016559362412",
      "-37613667547702792",
      "26843428611755372",
      "40490977466106416",
      "-41280679404735568",
      "14431411400437356",
      "-31045595183968544",
      "101178519427776336",
      "76351046562194832",
      "68397752940654752",
      "21554205566644668",
      "73079109191894528",
      "25347700342535972",
      "-90552002191543584",
      "11186724528670310",
      "-42190063744783400",
      "-24501761421561240",
      "50569377839565280",
      "58904118835926056",
      "10827193036675454",
      "-26746084913611412",
      "-36102622747421264",
      "-13192610815167428",
      "-41345212608575824",
      "-3711983328685164",
      "22901892662048340",
      "88027723133564000",
      "-12542240321636200",
      "-50991274416446688",
      "-20024271681904792",
      "90440191328525536",
      "62365442514419552",
      "57845424860715864",
      "75144916772842400",
      "-83351552486419680",
      "-20981172099709512",
      "54599203169345856",
      "-23094359785318376",
      "-5036120768636465",
      "-78523382544517520",
      "-45961450785398480",
      "48246048390865328",
      "-13318251818418502",
      "-59590186923742296",
      "27027890086174012",
      "2696572802960872",
      "-3598075127229094",
      "58329112827777864",
      "15890968963503838",
      "-75797490775585168",
      "75823307037353520",
      "-28749061748385428",
      "5076529923826456",
      "-60473158955574032",
      "9277012199163436",
      "36241564899683000",
      "54952450096607208",
      "19770340994000436",
      "-30412834137678148",
      "-38557182997465136",
      "-10883306153118610"
    ],
    [
      "-29083948582410812",
      "68860307335853576",
      "-29605284333229064",
      "11507952585816384",
      "-42478356510400776",
      "-52724756300449368",
      "-75705699622631072",
      "-73112823069095616",
      "19922439008951188",
      "-84207341074943536",
      "29521578922867776",
      "22109542042016984",
      "-24032242596149444",
      "35543892532587052",
      "70406034588813784",
      "71875564754009248",
      "-93425437808036800",
      "-56026287376880648",
      "-20390274003148080",
      "277853541774675",
      "-40141139179468152",
      "84592826664447792",
      "-4774770699441433",
      "64210437238216400",
      "60948219150304792",
      "18621467053890228",
      "-3994847182184458",
      "-84124736487865440",
      "-78136965632438656",
      "-72141639888286592",
      "50229836255311968",
      "71050971746444704",
      "87757751345634464",
      "-71833215653896328",
      "81282839179039008",
      "43705236166715624",
      "-79706490039825440",
      "65484426915645600",
      "-15760570764541626",
      "12886853888630868",
      "-30257700011134148",
      "-50078619271516800",
      "6395209114998579",
      "-72602890431880944",
      "-81576958298683168",
      "-22891122847795488",
      "-20624171942472456",
      "-45267302542924880",
      "43055757880210880",
      "83647921681404112",
      "7928096689283848",
      "13335554860532284",
      "16721831634640694",
      "-63536018133163456",
      "-50310704857110976",
      "-76018609106540672",
      "35688675940036772",
      "1829006592743098",
      "-15672616660594940",
      "-95075212419033056",
      "-50391163676977160",
      "21587414667010308",
      "-8246529847383499",
      "-48720832914114000"
    ],
    [
      "-12874552048742772",
      "57898640632629392",
      "82930132746696480",
      "7867160253226757",
      "-63044078648090360",
      "418478215578943",
      "2841644454747438",
      "5840396508574486",
      "-71071110665798184",
      "22205671295523644",
      "28797492384910584",
      "-60516245663166048",
      "89285276830196384",
      "-4046066198498010",
      "-52338022738695144",
      "-89773580431938176",
      "-88579908013343808",
      "-61415996402502056",
      "8299338631331921",
      "36481473594903944",
      "-9069006890058518",
      "27541406452655792",
      "-97332574427127840",
      "70754438638687136",
      "63391432166099552",
      "29498700052499772",
      "-91462314128875728",
      "-71931965649127960",
      "-72616741061210640",
      "324917025864124",
      "-25368740782141684",
      "25220923125743864",
      "32456997781991960",
      "44441845268011096",
      "-46925373375415800",
      "29725914821028708",
      "67871421575546264",
      "-48603057861328128",
      "61939705163240432",
      "26121007278561592",
      "65095216035842896",
      "2378378761932254",
      "-76318286359310144",
      "-74331924319267280",
      "-44670984148979184",
      "-73823161423206336",
      "54956506937742232",
      "90353034436702736",
      "34036274999380112",
      "-33118411898612976",
      "33489156514406204",
      "70928484201431272",
      "33331017941236496",
      "-83364039659500128",
      "-86115576326847072",
      "20292695611715316",
      "1516938209533691",
      "-96292361617088320",
      "-56199617683887480",
      "90731710195541376",
      "33711936324834824",
      "29491271823644640",
      "-28783328831195832",
      "-14250732958316802"
    ],
    [
      "43372020125389096",
      "21059688180685044",
      "1803833525627851",
      "341601000400260",
      "-71348480880260464",
      "80787420272827152",
      "44221736490726472",
      "13935567811131478",
      "23819802328944208",
      "45037999749183656",
      "1484410837292671",
      "84930822253227232",
      "-16386812552809716",
      "-96067294478416448",
      "-98169505596160896",
      "55028792470693592",
      "-66518545150756832",
      "-54015278816223144",
      "-10707381181418896",
      "-76651759445667264",
      "-100027792155742640",
      "-64108327031135560",
      "-62198594212532040",
      "36001138389110564",
      "76428517699241632",
      "54851543158292768",
      "40100306272506712",
      "-34584313631057740",
      "45363225042819976",
      "29800297692418100",
      "37102933973073960",
      "24981966242194176",
      "95722533762454992",
      "73298342525959008",
      "-30916042625904084",
      "89383706450462336",
      "-13392115943133832",
      "30479071661829948",
      "27033301070332528",
      "-85666365921497344",
      "29777020215988160",
      "83134494721889488",
      "74859537184238432",
      "-15839966014027596",
      "-62109775841236112",
      "38435652852058408",
      "-24013513699173928",
      "-96217058598995216",
      "50774220377206800",
      "76968118548393248",
      "17689181491732598",
      "-7401676848530769",
      "-75845047831535344",
      "12110242620110512",
      "-82696072757244112",
      "-22010868415236472",
      "22866094484925272",
      "-38195695728063584",
      "-74558518826961520",
      "56069772690534592",
      "-11217388324439526",
      "19876308739185332",
      "48522282391786576",
      "-56466583162546160"
    ],
    [
      "78582108020782464",
      "67199476063251496",
      "-40415894240140912",
      "36314677447080616",
      "28813691809773444",
      "18057815730571748",
      "85623234510421760",
      "7881862111389637",
      "-8014668710529804",
      "69065719842910768",
      "-77874004840850832",
      "-48886228352785112",
      "-54115667939186096",
      "-84019757807254784",
      "-59000819921493528",
      "4388306755572557",
      "-40183585137128832",
      "92960618436336512",
      "-53835339844226840",
      "-100544698536396032",
      "-68716645240783688",
      "-3535659750923514",
      "5274322815239429",
      "-12826863676309586",
      "-78808687627315520",
      "-30997605994343756",
      "43247826397418976",
      "-39504420012235640",
      "34880332648754120",
      "6039019674062729",
      "26444232091307640",
      "19235737621784212",
      "-32847065478563308",
      "-96371971070766448",
      "-4648147150874138",
      "-49269147217273712",
      "76445676386356352",
      "17994986847043038",
      "-13038586825132370",
      "9481141343712806",
      "-97930282354354864",
      "64184948801994320",
      "-74225373566150672",
      "-2342113293707371",
      "58198597282171248",
      "70304214954376224",
      "56925650686025616",
      "-36750812083482744",
      "68725049495697024",
      "18947497010231020",
      "31357020139694212",
      "39098367094993592",
      "-11209071613848210",
      "-78638978302478784",
      "-53835865110158920",
      "51619555801153184",
      "-61488240957260128",
      "64335040748119352",
      "40396612137556080",
      "81345036625862128",
      "-112431101500988000",
      "-70366755127906800",
      "51820352673530576",
      "-87512187659740448"
    ],
    [
      "16172446310520172",
      "-44531021267175672",
      "4056049976497888",
      "14292784035205842",
      "10321184992790222",
      "-79180121421813968",
      "22241761907935144",
      "-36543630063533784",
      "-5840742494910955",
      "-2908654278144240",
      "-84284864366054528",
      "85792489349842064",
      "43048292398452760",
      "50310626626014712",
      "4519476555287838",
      "28284803032875060",
      "-2067172899842262",
      "23793745785951616",
      "-49289956688880920",
      "54178908467292784",
      "-44355124235153200",
      "-17250308766961098",
      "-41009135544300080",
      "-29389152303338052",
      "5657323170453310",
      "-29084699228405952",
      "-62021341174840928",
      "43453481048345568",
      "-73762297630310064",
      "-60644853860139848",
      "-69543831050395968",
      "-90659819543361664",
      "87384469807147984",
      "72929583489894864",
      "-47486372292041776",
      "61938997358083728",
      "51212444901466368",
      "42013507336378096",
      "-23459399119019508",
      "-80087266862392432",
      "-4873498808592558",
      "25449812412261964",
      "-97724586725234992",
      "-45369729399681088",
      "14494691044092178",
      "15058211982250214",
      "82512982189655296",
      "33264175057411192",
      "-27405088767409324",
      "-100544676184654240",
      "20755052566528320",
      "-84898732602596288",
      "103834919631481168",
      "-91511584818363184",
      "12679968029260636",
      "25769393891096116",
      "20479850471019744",
      "57957228273153304",
      "18746310845017432",
      "52392773330211640",
      "-111228406429290768",
      "54360385984182360",
      "-82954652607440944",
      "8599484339356422"
    ],
    [
      "-83565525710582736",
      "-60807436704635624",
      "-16883105039596558",
      "68439379334449768",
      "-14790020883083344",
      "-90122528374195104",
      "48696570098400112",
      "-76501891016960144",
      "-51540210843086240",
      "-96406467258930208",
      "24485027417540552",
      "101521976292133328",
      "6630669813603163",
      "-79667076468467712",
      "78450754284858704",
      "-12673777528107166",
      "89403122663497920",
      "-79919636249542240",
      "-2006869763135910",
      "-30504086986184120",
      "60726873576641080",
      "26381874457001688",
      "-67019797861576080",
      "-47812741249799728",
      "43117135763168336",
      "-17738614231348038",
      "-78015178442001344",
      "17761297523975372",
      "65996326506137848",
      "65359733998775480",
      "43875772505998608",
      "-55312510579824448",
      "95216229557991024",
      "-40799718350172040",
      "-77553838491439824",
      "-24572057649493216",
      "14267430640757084",
      "31716968864202500",
      "15591355971992016",
      "23898599669337272",
      "-15318758785724640",
      "-11204349808394908",
      "63648179173469544",
      "82913130521774288",
      "-70337146520614624",
      "79189114272594448",
      "-31452637165784836",
      "48869777470827104",
      "89620612561702736",
      "77360756695270544",
      "73165997862815856",
      "23090977221727372",
      "-100641451776027680",
      "11000208556652070",
      "84987878799438480",
      "-2914961893111467",
      "77134259045124048",
      "-42528424412012104",
      "50499889999628064",
      "-49771524965763096",
      "-46993773430585864",
      "-76592750847339632",
      "-78631758689880368",
      "70811793208122256"
    ],
    [
      "86312733590602880",
      "71892023086547848",
      "-2142164856195449",
      "24132160469889640",
      "84911383688449856",
      "-76046369969844816",
      "-36939252167940136",
      "-53921140730381008",
      "-44070307165384296",
      "73309496045112608",
      "4596605431288481",
      "-39321515709161760",
      "73685780167579648",
      "4329101182520389",
      "25450568646192552",
      "17318457365036010",
      "4424341488629579",
      "-31999360769987108",
      "-101082071661949152",
      "89271709322929376",
      "-75984269380569456",
      "-44823754578828808",
      "14617570675909520",
      "-13663495890796184",
      "-73718138039112096",
      "41826806962490080",
      "17641102895140648",
      "-4047715570777654",
      "15268027782440186",
      "89445009827613824",
      "71633413434028624",
      "5150809884071350",
      "-49443971365690232",
      "-30043704435229300",
      "-60306366533041000",
      "18487071618437768",
      "55598497390747072",
      "23240072652697564",
      "21045196801424028",
      "7944615557789803",
      "-37571400403976440",
      "-2127640647813677",
      "-72997108101844784",
      "28620800003409384",
      "62069669365882872",
      "-58792211115360264",
      "31203351914882660",
      "67380189895629880",
      "38397159427404400",
      "-27315132319927216",
      "13341516256332398",
      "56927956640720368",
      "15379099175333976",
      "-28785662725567816",
      "-65088786184787752",
      "-18401624634861948",
      "77194668352603920",
      "54646275937557224",
      "54947089403867720",
      "-13364426791667938",
      "-89697614312171936",
      "-52594844251871112",
      "-83946198225021360",
      "-13465756550431252"
    ],
    [
      "568919640500098",
      "13806052505970002",
      "-81472650170326240",
      "84226496517658240",
      "-46952024102211000",
      "-75519993901252752",
      "104186110198497776",
      "5112142302095890",
      "-12784150429069996",
      "-86743757128715520",
      "-43263357132673264",
      "-41596326977014544",
      "71863658726215360",
      "73393069207668304",
      "-64881719648838040",
      "64184643328189848",
      "-291227886918932",
      "23134749382734300",
      "-33424016088247300",
      "-136418704641982",
      "-56460216641426088",
      "79060599207878112",
      "9715567342936992",
      "14198740944266320",
      "91910235583782192",
      "38585480302572248",
      "49703847616910936",
      "-822730595245957",
      "84051825106143952",
      "77898859977722160",
      "43733607977628704",
      "18741101026535036",
      "61270445585250856",
      "-16787460073828698",
      "-60415647923946384",
      "47889802604913712",
      "74810944497585296",
      "73853559792041776",
      "20841537043452264",
      "-26392256841063500",
      "-15801748260855674",
      "-37981744855642320",
      "-24889536201953888",
      "-70755906403064728",
      "63451945781707760",
      "56103646755218504",
      "-62855727970600128",
      "15635695308446884",
      "67657321691513064",
      "43418824672698976",
      "9518298320472240",
      "95751285552978512",
      "-37565555423498152",
      "25188671424984932",
      "-93530125916004176",
      "17912397161126136",
      "31142521649599076",
      "71062147617340088",
      "58824785053730008",
      "13789134100079536",
      "-36224305629730224",
      "-69428518414497376",
      "-97972147166728976",
      "74729494750499728"
    ],
    [
      "-97808793187141424",
      "-40698997676372528",
      "72542846202850336",
      "-90539485216140752",
      "2418171148747205",
      "47885295003652576",
      "-24891601875424384",
      "28705190867185592",
      "-62835633754730224",
      "-46779245138168336",
      "83924964070320128",
      "-31076095998287200",
      "-7069826126098633",
      "-64748346805572512",
      "5187120754271746",
      "-18062209710478784",
      "-13845563866198062",
      "-50837092101573944",
      "80871619284152992",
      "-45278992503881456",
      "-59424538165330888",
      "-60025081038475040",
      "62496274709701536",
      "-54962001740932464",
      "-38752045482397080",
      "-28639990836381912",
      "80805294215679168",
      "73294728994369504",
      "-22637449204921724",
      "54469645023345944",
      "36157406866550448",
      "62160179018974304",
      "1997628947719931",
      "-64051389694213864",
      "-35535976290702820",
      "-42017538100481032",
      "41983418166637424",
      "55242639034986496",
      "35237085074186324",
      "-83503477275371552",
      "26891535148024560",
      "-73779359459877008",
      "-23018801584839820",
      "-57170107960700992",
      "-41841443628072736",
      "90343259274959568",
      "-27503840625286104",
      "8284812793135643",
      "-8771144784986973",
      "-28944037854671480",
      "66440388560295104",
      "34013643860816956",
      "-79962879419326784",
      "-69110915064811704",
      "84317445755004880",
      "-14480166137218476",
      "41043270379304888",
      "101759545505046848",
      "-71739979088306424",
      "85341885685920720",
      "-26392152532935144",
      "-3874351037666201",
      "54733064025640488",
      "31288642436265944"
    ],
    [
      "77099852263927456",
      "12757391668856144",
      "-26548841968178748",
      "-50907343626022336",
      "47708600759506224",
      "-21228220313787460",
      "-60129940509796144",
      "35863753408193588",
      "11241307482123374",
      "-1383947790600359",
      "-26470717042684556",
      "1036271336488425",
      "-26637867093086244",
      "13197024352848530",
      "12795567512512208",
      "76818287372589104",
      "12039358727633954",
      "3026761114597320",
      "-16915693879127502",
      "-5096047185361385",
      "79553209245204928",
      "-71989223361015320",
      "-63986115157604216",
      "72988651692867280",
      "-46142727136611936",
      "22996162995696068",
      "33880956470966340",
      "-68158224225044248",
      "-52784711122512816",
      "18348803743720056",
      "88733084499835968",
      "-85777260363101952",
      "41897583752870560",
      "39112318307161328",
      "85325844585895536",
      "35067271441221236",
      "56868281215429304",
      "-36051962524652480",
      "-83689585328102112",
      "-59425897896289824",
      "-40947102010250088",
      "-67789278924465176",
      "35761285573244096",
      "-11899717152118682",
      "-48584379255771640",
      "8308603428304195",
      "-6497467402368784",
      "35557240247726440",
      "-32895427197217940",
      "-68316660821437832",
      "-43923411518335344",
      "82949675619602208",
      "88411256670951840",
      "-24550780653953552",
      "-36152675747871400",
      "63406631350517272",
      "56220095604658128",
      "-77435903251171120",
      "1616278430446982",
      "64339272677898408",
      "-49413271248340608",
      "-15562606044113636",
      "79681329429149632",
      "-88224679231643680"
    ],
    [
      "-93762561678886416",
      "-31574390828609468",
      "-7636558730155230",
      "-50821214914321896",
      "-30871059745550156",
      "-80698475241661072",
      "-77230036258697504",
      "-46611484140157696",
      "-21933801472187044",
      "-42343296110630032",
      "39196610450744632",
      "-56754961609840392",
      "-22052666172385216",
      "-51711287349462512",
      "56420762091875080",
      "-93515351414680480",
      "-99584482610225680",
      "33093012869358064",
      "24253796786069868",
      "-4000647459179163",
      "36106333136558536",
      "-32741796225309372",
      "-71185834705829624",
      "-58425448834896088",
      "13225452043116092",
      "-66208250820636752",
      "-67808538675308224",
      "79972140491008752",
      "24457462131977080",
      "-25721328333020212",
      "42891807854175568",
      "26309717446565628",
      "49275308847427368",
      "-77645674347877504",
      "68360641598701480",
      "-41593957692384720",
      "74709832668304448",
      "88452354073524480",
      "80474585294723504",
      "-97861744463443760",
      "55107783526182176",
      "-87105430662631984",
      "18228327855467796",
      "-73555655777454384",
      "13114292174577714",
      "7111645303666592",
      "-9651057422161102",
      "-77776707708835600",
      "48513840883970264",
      "-54027851670980456",
      "34119758754968644",
      "48179339617490768",
      "91494865715503696",
      "-29744399711489676",
      "52026860415935520",
      "-50490666180849072",
      "-77681183815002448",
      "42751271277666088",
      "41853845119476320",
      "98108872771263120",
      "34565772861242296",
      "-38793895393610000",
      "-85795775055885312",
      "-7574385963380337"
    ],
    [
      "50815336406230928",
      "-22678816691040992",
      "45368846505880352",
      "31769149005413056",
      "-2810003701597452",
      "-91001242399215696",
      "-87361238896846768",
      "-15763396397233010",
      "-96333190798759456",
      "32243192195892332",
      "-65603159368038176",
      "-68050228059291840",
      "25294041261076928",
      "19172128289937972",
      "-85302010178565984",
      "-86496174335479744",
      "70121571421623232",
      "-97079209983348848",
      "-14157059602439404",
      "-61428576707839968",
      "78782677650451664",
      "-68244896829128264",
      "-27865216135978700",
      "67082844674587248",
      "69929309189319608",
      "40085665881633760",
      "56755132973194120",
      "-21088028326630592",
      "73461256921291344",
      "11523298919200898",
      "-6657078396528959",
      "51545884460210800",
      "81703513860702512",
      "-93657225370407104",
      "-45587494969367984",
      "-16800994053483010",
      "15702148899435998",
      "4997031297534704",
      "-15131928957998752",
      "-20617300644516944",
      "-26994569227099420",
      "-11164288036525250",
      "-15554448589682580",
      "-68186059594154360",
      "-4145952407270670",
      "87907075881958000",
      "3537954296916723",
      "-96168763935565952",
      "-52583817392587664",
      "56729476898908616",
      "7997864857316017",
      "-20991139113903044",
      "-39639431983232496",
      "-90536244213581088",
      "34714203327894212",
      "14344132505357266",
      "-24325892329216004",
      "-2952131908386945",
      "-61602231115102768",
      "-77497996389865872",
      "-15896150842308998",
      "-16263252124190330",
      "-1671643345616757",
      "-58879308402538296"
    ],
    [
      "-20915079861879348",
      "-38739584386348728",
      "56337658315896984",
      "76912708580493920",
      "-44972341507673264",
      "86574777960777280",
      "79861581325531008",
      "-61831016093492504",
      "86664639413356784",
      "50392176955938336",
      "-50680283457040784",
      "-25509538128972052",
      "35000942647457124",
      "29073663055896760",
      "-100170746445655824",
      "-1841746387071907",
      "7370003964751959",
      "19823946058750152",
      "17798064276576042",
      "87348155677318576",
      "9794551879167556",
      "55897362530231472",
      "-27647620067000388",
      "-31898602843284608",
      "-66240057349205016",
      "-5412435159087181",
      "-86264200508594512",
      "-27314873412251472",
      "5500309169292450",
      "-29957432299852372",
      "-92824868857860560",
      "-49848292022943496",
      "12178232893347740",
      "68730361759662632",
      "95883391797542576",
      "-59198141098022464",
      "12961622327566146",
      "73384344577789312",
      "-35027284175157548",
      "83862185478210448",
      "14617577195167542",
      "42023405432701112",
      "-89030981063842768",
      "44286981225013736",
      "65048523247241976",
      "-83165690302848816",
      "-41194856166839600",
      "35565510392189024",
      "2373690716922283",
      "-98551474511623376",
      "3315566107630729",
      "56101087480783464",
      "-11290529742836952",
      "-20002933219075204",
      "66583983600139616",
      "88393971323966976",
      "4936004057526588",
      "24061938747763632",
      "-22693539038300516",
      "-30023343861103056",
      "-71345925331115720",
      "-43739788234233856",
      "73482051491737360",
      "-56994512677192688"
    ],
    [
      "64521238207817080",
      "-72356261312961584",
      "-26776289567351340",
      "75894370675086976",
      "-39712596684694288",
      "40477950125932696",
      "46263046562671664",
      "54709926247596744",
      "43525662273168560",
      "-38783833384513856",
      "3056312678381800",
      "22771688178181648",
      "4849396646022797",
      "36541853100061416",
      "3185265464708209",
      "48705112189054488",
      "-67116998136043552",
      "70461027324199680",
      "-67034952342510224",
      "47359962016344072",
      "49646638333797456",
      "-65112106502056120",
      "30317038297653200",
      "-76790824532508848",
      "64351029694080352",
      "-53606804460287096",
      "-70556648075580600",
      "56419037282466888",
      "-24298347532749176",
      "21441321820020676",
      "-48368133604526520",
      "-24983068928122520",
      "-89609958231449120",
      "21826967597007752",
      "58831732720136640",
      "5000254604965448",
      "-92832483351230624",
      "-56274753063917160",
      "-10279212146997452",
      "-69415114820003512",
      "78448049724102016",
      "-83779968321323392",
      "-2109695458784699",
      "87494552135467536",
      "-47075320035219192",
      "-97920477390289312",
      "-63903182744979856",
      "-31294729560613632",
      "88700778782367712",
      "-47550275921821592",
      "-76423808932304384",
      "-21779388189315796",
      "-85520483553409584",
      "4030573647469282",
      "-48545304685831072",
      "90932957828044896",
      "38605395704507824",
      "-64076021313667296",
      "105082988739013664",
      "-88617853820323952",
      "-98011456429958336",
      "49407415091991424",
      "61359837651252744",
      "-99732190370559696"
    ],
    [
      "28051387518644332",
      "65225459635257720",
      "28519334271550180",
      "-39326976984739304",
      "-1856863615103066",
      "-71559235453605648",
      "35528857260942460",
      "78534647822380064",
      "12748573906719684",
      "69690316915512088",
      "-49949929118156432",
      "-89928306639194496",
      "20484218111960",
      "-39367608726024624",
      "-780631089583039",
      "-82124195992946624",
      "64540483057498928",
      "27252934873104096",
      "38086101412773136",
      "-60668654739856720",
      "-85146799683570864",
      "51629643887281416",
      "77439792454242704",
      "-50045307725667952",
      "21111669018864632",
      "37862785160541536",
      "24765796959400176",
      "702712102793157",
      "12550771236419678",
      "-84249213337898256",
      "74600838124752048",
      "-73741026222705840",
      "62842503190040592",
      "-36597386002540592",
      "29629861935973168",
      "-18420521169900896",
      "30663546174764632",
      "-54688729345798496",
      "24446366354823112",
